<?xml version="1.0"?>
<opencv_storage>
<stage5>
  <maxWeakCount>8</maxWeakCount>
  <stageThreshold>-1.2280708551406860e+00</stageThreshold>
  <weakClassifiers>
    <_>
      <internalNodes>
        0 -1 30674 -8.6110241711139679e-02</internalNodes>
      <leafValues>
        4.2500001192092896e-01 -5.7704919576644897e-01</leafValues></_>
    <_>
      <internalNodes>
        0 -1 1403063 -2.7991626411676407e-03</internalNodes>
      <leafValues>
        3.8798308372497559e-01 -4.7077652812004089e-01</leafValues></_>
    <_>
      <internalNodes>
        0 -1 2015078 -4.8538595438003540e-03</internalNodes>
      <leafValues>
        4.5661568641662598e-01 -3.9611735939979553e-01</leafValues></_>
    <_>
      <internalNodes>
        0 -1 1568888 1.4489386230707169e-03</internalNodes>
      <leafValues>
        -5.5015367269515991e-01 3.8231122493743896e-01</leafValues></_>
    <_>
      <internalNodes>
        0 -1 706042 -1.7674805596470833e-02</internalNodes>
      <leafValues>
        -7.0030403137207031e-01 2.5685328245162964e-01</leafValues></_>
    <_>
      <internalNodes>
        0 -1 804772 2.2267784923315048e-02</internalNodes>
      <leafValues>
        1.9251482188701630e-01 -8.9642089605331421e-01</leafValues></_>
    <_>
      <internalNodes>
        0 -1 586778 -1.3678987743332982e-03</internalNodes>
      <leafValues>
        2.1800938248634338e-01 -6.2454891204833984e-01</leafValues></_>
    <_>
      <internalNodes>
        0 -1 508872 -2.3965850472450256e-02</internalNodes>
      <leafValues>
        -8.2239490747451782e-01 1.8687130510807037e-01</leafValues></_></weakClassifiers></stage5>
</opencv_storage>
